<?xml version="1.0"?>
<opencv_storage>
<!-- Created using Computer Vision System Toolbox(tm) for MATLAB(R) -->
<!-- Version 8.6.0.267246 (R2015b) -->
<!-- Compatible with OpenCV 2.4 -->
<cascade>
  <stageType>BOOST</stageType>
  <featureType>HOG</featureType>
  <height>63</height>
  <width>32</width>
  <stageParams>
    <boostType>GAB</boostType>
    <minHitRate>9.9500000476837158e-01</minHitRate>
    <maxFalseAlarm>5.0000000000000000e-01</maxFalseAlarm>
    <weightTrimRate>9.4999999999999996e-01</weightTrimRate>
    <maxDepth>1</maxDepth>
    <maxWeakCount>100</maxWeakCount></stageParams>
  <featureParams>
    <maxCatCount>0</maxCatCount>
    <featSize>36</featSize></featureParams>
  <stageNum>2</stageNum>
  <stages>
    <!-- stage 0 -->
    <_>
      <maxWeakCount>2</maxWeakCount>
      <stageThreshold>5.4054055362939835e-02</stageThreshold>
      <weakClassifiers>
        <_>
          <internalNodes>
            0 -1 3 1.7834372818470001e-02</internalNodes>
          <leafValues>
            1. -9.4594591856002808e-01</leafValues></_>
        <_>
          <internalNodes>
            0 -1 0 6.2431180849671364e-03</internalNodes>
          <leafValues>
            1. -8.9999872446060181e-01</leafValues></_></weakClassifiers></_>
    <!-- stage 1 -->
    <_>
      <maxWeakCount>2</maxWeakCount>
      <stageThreshold>1.0526315867900848e-01</stageThreshold>
      <weakClassifiers>
        <_>
          <internalNodes>
            0 -1 1 2.3193182423710823e-03</internalNodes>
          <leafValues>
            1. -8.9473682641983032e-01</leafValues></_>
        <_>
          <internalNodes>
            0 -1 2 3.6098766140639782e-03</internalNodes>
          <leafValues>
            1. -8.6045247316360474e-01</leafValues></_></weakClassifiers></_></stages>
  <features>
    <_>
      <rect>
        0 36 8 8 25</rect></_>
    <_>
      <rect>
        0 40 8 8 24</rect></_>
    <_>
      <rect>
        16 0 8 8 11</rect></_>
    <_>
      <rect>
        0 0 16 16 16</rect></_></features></cascade>
</opencv_storage>
