<?xml version="1.0"?>
<opencv_storage>
<!-- Created using Computer Vision System Toolbox(tm) for MATLAB(R) -->
<!-- Version 8.6.0.267246 (R2015b) -->
<!-- Compatible with OpenCV 2.4 -->
<cascade>
  <stageType>BOOST</stageType>
  <featureType>HOG</featureType>
  <height>110</height>
  <width>70</width>
  <stageParams>
    <boostType>GAB</boostType>
    <minHitRate>9.9500000476837158e-01</minHitRate>
    <maxFalseAlarm>2.5000000000000000e-01</maxFalseAlarm>
    <weightTrimRate>9.4999999999999996e-01</weightTrimRate>
    <maxDepth>1</maxDepth>
    <maxWeakCount>100</maxWeakCount></stageParams>
  <featureParams>
    <maxCatCount>0</maxCatCount>
    <featSize>36</featSize></featureParams>
  <stageNum>10</stageNum>
  <stages>
    <!-- stage 0 -->
    <_>
      <maxWeakCount>2</maxWeakCount>
      <stageThreshold>-1.3563606142997742e-01</stageThreshold>
      <weakClassifiers>
        <_>
          <internalNodes>
            0 -1 32 2.7690690010786057e-02</internalNodes>
          <leafValues>
            -9.5061731338500977e-01 7.7777779102325439e-01</leafValues></_>
        <_>
          <internalNodes>
            0 -1 23 2.4846889078617096e-02</internalNodes>
          <leafValues>
            8.1498122215270996e-01 -7.9154241085052490e-01</leafValues></_></weakClassifiers></_>
    <!-- stage 1 -->
    <_>
      <maxWeakCount>2</maxWeakCount>
      <stageThreshold>-2.4850270152091980e-01</stageThreshold>
      <weakClassifiers>
        <_>
          <internalNodes>
            0 -1 36 2.3072937503457069e-02</internalNodes>
          <leafValues>
            -9.5061731338500977e-01 7.7777779102325439e-01</leafValues></_>
        <_>
          <internalNodes>
            0 -1 29 1.7995905131101608e-02</internalNodes>
          <leafValues>
            -8.2335603237152100e-01 7.0211458206176758e-01</leafValues></_></weakClassifiers></_>
    <!-- stage 2 -->
    <_>
      <maxWeakCount>4</maxWeakCount>
      <stageThreshold>-4.6446564793586731e-01</stageThreshold>
      <weakClassifiers>
        <_>
          <internalNodes>
            0 -1 1 4.8210233217105269e-04</internalNodes>
          <leafValues>
            1. -6.0000002384185791e-01</leafValues></_>
        <_>
          <internalNodes>
            0 -1 16 2.3848420009016991e-02</internalNodes>
          <leafValues>
            -9.0010368824005127e-01 4.2165073752403259e-01</leafValues></_>
        <_>
          <internalNodes>
            0 -1 28 2.5512440130114555e-02</internalNodes>
          <leafValues>
            5.0555586814880371e-01 -6.8367725610733032e-01</leafValues></_>
        <_>
          <internalNodes>
            0 -1 7 2.8432253748178482e-02</internalNodes>
          <leafValues>
            -7.9167228937149048e-01 5.1929992437362671e-01</leafValues></_></weakClassifiers></_>
    <!-- stage 3 -->
    <_>
      <maxWeakCount>4</maxWeakCount>
      <stageThreshold>-4.6281915903091431e-01</stageThreshold>
      <weakClassifiers>
        <_>
          <internalNodes>
            0 -1 9 2.2914316505193710e-03</internalNodes>
          <leafValues>
            1. -6.6336631774902344e-01</leafValues></_>
        <_>
          <internalNodes>
            0 -1 27 2.0001178607344627e-02</internalNodes>
          <leafValues>
            -7.8841197490692139e-01 4.5787355303764343e-01</leafValues></_>
        <_>
          <internalNodes>
            0 -1 14 3.1881786882877350e-02</internalNodes>
          <leafValues>
            -6.4424574375152588e-01 5.3675341606140137e-01</leafValues></_>
        <_>
          <internalNodes>
            0 -1 17 1.9059058278799057e-02</internalNodes>
          <leafValues>
            -7.9407978057861328e-01 5.0930660963058472e-01</leafValues></_></weakClassifiers></_>
    <!-- stage 4 -->
    <_>
      <maxWeakCount>5</maxWeakCount>
      <stageThreshold>-5.7376712560653687e-01</stageThreshold>
      <weakClassifiers>
        <_>
          <internalNodes>
            0 -1 19 1.2592044658958912e-02</internalNodes>
          <leafValues>
            -9.6226418018341064e-01 1.2328767031431198e-01</leafValues></_>
        <_>
          <internalNodes>
            0 -1 31 2.3807249963283539e-02</internalNodes>
          <leafValues>
            -7.3929673433303833e-01 3.7707769870758057e-01</leafValues></_>
        <_>
          <internalNodes>
            0 -1 12 1.1757878586649895e-02</internalNodes>
          <leafValues>
            -9.4911783933639526e-01 3.1684374809265137e-01</leafValues></_>
        <_>
          <internalNodes>
            0 -1 10 4.5765645802021027e-02</internalNodes>
          <leafValues>
            -5.7168430089950562e-01 6.2445288896560669e-01</leafValues></_>
        <_>
          <internalNodes>
            0 -1 24 1.4150187373161316e-02</internalNodes>
          <leafValues>
            -8.1929194927215576e-01 4.7284120321273804e-01</leafValues></_></weakClassifiers></_>
    <!-- stage 5 -->
    <_>
      <maxWeakCount>4</maxWeakCount>
      <stageThreshold>-8.2720629870891571e-02</stageThreshold>
      <weakClassifiers>
        <_>
          <internalNodes>
            0 -1 6 4.5192055404186249e-03</internalNodes>
          <leafValues>
            9.2307692766189575e-01 -6.6000002622604370e-01</leafValues></_>
        <_>
          <internalNodes>
            0 -1 4 1.2847670353949070e-02</internalNodes>
          <leafValues>
            6.4700734615325928e-01 -6.9983690977096558e-01</leafValues></_>
        <_>
          <internalNodes>
            0 -1 5 8.6667798459529877e-03</internalNodes>
          <leafValues>
            8.0508244037628174e-01 -5.5268585681915283e-01</leafValues></_>
        <_>
          <internalNodes>
            0 -1 0 1.7285879701375961e-02</internalNodes>
          <leafValues>
            4.8295783996582031e-01 -8.0889624357223511e-01</leafValues></_></weakClassifiers></_>
    <!-- stage 6 -->
    <_>
      <maxWeakCount>4</maxWeakCount>
      <stageThreshold>-2.4893572926521301e-01</stageThreshold>
      <weakClassifiers>
        <_>
          <internalNodes>
            0 -1 26 6.4051821827888489e-02</internalNodes>
          <leafValues>
            -6.0396039485931396e-01 7.5999999046325684e-01</leafValues></_>
        <_>
          <internalNodes>
            0 -1 22 3.1649127602577209e-02</internalNodes>
          <leafValues>
            -6.6038060188293457e-01 5.2832007408142090e-01</leafValues></_>
        <_>
          <internalNodes>
            0 -1 8 1.2294005602598190e-02</internalNodes>
          <leafValues>
            4.6605661511421204e-01 -6.2624305486679077e-01</leafValues></_>
        <_>
          <internalNodes>
            0 -1 3 1.3917275704443455e-02</internalNodes>
          <leafValues>
            5.4934865236282349e-01 -5.9417372941970825e-01</leafValues></_></weakClassifiers></_>
    <!-- stage 7 -->
    <_>
      <maxWeakCount>5</maxWeakCount>
      <stageThreshold>-1.7432524263858795e-01</stageThreshold>
      <weakClassifiers>
        <_>
          <internalNodes>
            0 -1 25 2.3984599858522415e-02</internalNodes>
          <leafValues>
            -7.7419352531433105e-01 9.3750000000000000e-02</leafValues></_>
        <_>
          <internalNodes>
            0 -1 30 2.0272489637136459e-02</internalNodes>
          <leafValues>
            -7.1681141853332520e-01 3.0461049079895020e-01</leafValues></_>
        <_>
          <internalNodes>
            0 -1 33 6.2853738665580750e-02</internalNodes>
          <leafValues>
            -4.0068939328193665e-01 7.0411527156829834e-01</leafValues></_>
        <_>
          <internalNodes>
            0 -1 34 2.6022300124168396e-02</internalNodes>
          <leafValues>
            -4.7248047590255737e-01 6.2329834699630737e-01</leafValues></_>
        <_>
          <internalNodes>
            0 -1 35 4.9819290637969971e-02</internalNodes>
          <leafValues>
            3.5831823945045471e-01 -7.9529470205307007e-01</leafValues></_></weakClassifiers></_>
    <!-- stage 8 -->
    <_>
      <maxWeakCount>4</maxWeakCount>
      <stageThreshold>2.2975884377956390e-01</stageThreshold>
      <weakClassifiers>
        <_>
          <internalNodes>
            0 -1 21 2.0848549902439117e-02</internalNodes>
          <leafValues>
            6.1702126264572144e-01 -6.6666668653488159e-01</leafValues></_>
        <_>
          <internalNodes>
            0 -1 18 1.8269818276166916e-02</internalNodes>
          <leafValues>
            -5.2694147825241089e-01 7.7971738576889038e-01</leafValues></_>
        <_>
          <internalNodes>
            0 -1 15 3.0539734289050102e-02</internalNodes>
          <leafValues>
            -5.6699925661087036e-01 7.3833751678466797e-01</leafValues></_>
        <_>
          <internalNodes>
            0 -1 20 1.1092432774603367e-02</internalNodes>
          <leafValues>
            7.0667827129364014e-01 -5.8454930782318115e-01</leafValues></_></weakClassifiers></_>
    <!-- stage 9 -->
    <_>
      <maxWeakCount>3</maxWeakCount>
      <stageThreshold>8.8858032226562500e-01</stageThreshold>
      <weakClassifiers>
        <_>
          <internalNodes>
            0 -1 11 4.3199576437473297e-02</internalNodes>
          <leafValues>
            7.5000000000000000e-01 -1.</leafValues></_>
        <_>
          <internalNodes>
            0 -1 13 2.2800328209996223e-02</internalNodes>
          <leafValues>
            8.7811052799224854e-01 -6.6671609878540039e-01</leafValues></_>
        <_>
          <internalNodes>
            0 -1 2 4.3962541967630386e-03</internalNodes>
          <leafValues>
            -7.3953020572662354e-01 1.</leafValues></_></weakClassifiers></_></stages>
  <features>
    <_>
      <rect>
        0 72 8 8 6</rect></_>
    <_>
      <rect>
        0 76 8 8 24</rect></_>
    <_>
      <rect>
        20 72 8 8 18</rect></_>
    <_>
      <rect>
        48 12 8 8 17</rect></_>
    <_>
      <rect>
        48 76 8 8 28</rect></_>
    <_>
      <rect>
        52 12 8 8 20</rect></_>
    <_>
      <rect>
        52 32 8 8 13</rect></_>
    <_>
      <rect>
        52 56 8 8 26</rect></_>
    <_>
      <rect>
        32 72 8 16 20</rect></_>
    <_>
      <rect>
        48 0 8 16 14</rect></_>
    <_>
      <rect>
        48 40 8 16 26</rect></_>
    <_>
      <rect>
        52 48 8 16 9</rect></_>
    <_>
      <rect>
        12 16 16 8 30</rect></_>
    <_>
      <rect>
        12 20 16 8 5</rect></_>
    <_>
      <rect>
        16 28 16 8 30</rect></_>
    <_>
      <rect>
        20 4 16 8 2</rect></_>
    <_>
      <rect>
        28 48 16 8 3</rect></_>
    <_>
      <rect>
        32 80 16 8 26</rect></_>
    <_>
      <rect>
        0 8 16 16 7</rect></_>
    <_>
      <rect>
        8 16 16 16 21</rect></_>
    <_>
      <rect>
        28 4 16 16 12</rect></_>
    <_>
      <rect>
        36 52 16 16 29</rect></_>
    <_>
      <rect>
        0 0 16 32 28</rect></_>
    <_>
      <rect>
        0 44 16 32 26</rect></_>
    <_>
      <rect>
        0 44 16 32 27</rect></_>
    <_>
      <rect>
        4 0 16 32 11</rect></_>
    <_>
      <rect>
        4 32 16 32 13</rect></_>
    <_>
      <rect>
        16 36 16 32 17</rect></_>
    <_>
      <rect>
        28 4 16 32 13</rect></_>
    <_>
      <rect>
        0 8 32 16 10</rect></_>
    <_>
      <rect>
        0 64 32 16 16</rect></_>
    <_>
      <rect>
        4 12 32 16 6</rect></_>
    <_>
      <rect>
        0 32 24 24 12</rect></_>
    <_>
      <rect>
        0 36 24 24 13</rect></_>
    <_>
      <rect>
        8 4 24 24 25</rect></_>
    <_>
      <rect>
        8 4 24 48 35</rect></_>
    <_>
      <rect>
        16 0 24 48 1</rect></_></features></cascade>
</opencv_storage>
