<?xml version="1.0"?>
<opencv_storage>
<!-- Created using Computer Vision System Toolbox(tm) for MATLAB(R) -->
<!-- Version 8.6.0.267246 (R2015b) -->
<!-- Compatible with OpenCV 2.4 -->
<cascade>
  <stageType>BOOST</stageType>
  <featureType>HOG</featureType>
  <height>100</height>
  <width>60</width>
  <stageParams>
    <boostType>GAB</boostType>
    <minHitRate>9.9800002574920654e-01</minHitRate>
    <maxFalseAlarm>5.0000000745058060e-02</maxFalseAlarm>
    <weightTrimRate>9.4999999999999996e-01</weightTrimRate>
    <maxDepth>1</maxDepth>
    <maxWeakCount>100</maxWeakCount></stageParams>
  <featureParams>
    <maxCatCount>0</maxCatCount>
    <featSize>36</featSize></featureParams>
  <stageNum>9</stageNum>
  <stages>
    <!-- stage 0 -->
    <_>
      <maxWeakCount>4</maxWeakCount>
      <stageThreshold>-1.0111225843429565e+00</stageThreshold>
      <weakClassifiers>
        <_>
          <internalNodes>
            0 -1 19 8.7185455486178398e-03</internalNodes>
          <leafValues>
            9.4444441795349121e-01 -7.7142858505249023e-01</leafValues></_>
        <_>
          <internalNodes>
            0 -1 59 2.8428267687559128e-02</internalNodes>
          <leafValues>
            -6.6892129182815552e-01 7.6564782857894897e-01</leafValues></_>
        <_>
          <internalNodes>
            0 -1 55 1.8189232796430588e-02</internalNodes>
          <leafValues>
            9.5801705121994019e-01 -5.5387574434280396e-01</leafValues></_>
        <_>
          <internalNodes>
            0 -1 52 2.5735367089509964e-02</internalNodes>
          <leafValues>
            8.3517360687255859e-01 -5.2878981828689575e-01</leafValues></_></weakClassifiers></_>
    <!-- stage 1 -->
    <_>
      <maxWeakCount>7</maxWeakCount>
      <stageThreshold>4.9954324960708618e-01</stageThreshold>
      <weakClassifiers>
        <_>
          <internalNodes>
            0 -1 59 2.4962347000837326e-02</internalNodes>
          <leafValues>
            -8.9333331584930420e-01 3.0303031206130981e-01</leafValues></_>
        <_>
          <internalNodes>
            0 -1 56 3.1333617866039276e-02</internalNodes>
          <leafValues>
            -5.9260106086730957e-01 8.3189129829406738e-01</leafValues></_>
        <_>
          <internalNodes>
            0 -1 14 9.8492661491036415e-03</internalNodes>
          <leafValues>
            9.0316301584243774e-01 -3.8638833165168762e-01</leafValues></_>
        <_>
          <internalNodes>
            0 -1 11 5.8657494373619556e-03</internalNodes>
          <leafValues>
            7.3567366600036621e-01 -4.9280834197998047e-01</leafValues></_>
        <_>
          <internalNodes>
            0 -1 35 2.1343063563108444e-02</internalNodes>
          <leafValues>
            -7.9346185922622681e-01 5.2501606941223145e-01</leafValues></_>
        <_>
          <internalNodes>
            0 -1 40 2.8557375073432922e-02</internalNodes>
          <leafValues>
            -7.9925787448883057e-01 4.9202585220336914e-01</leafValues></_>
        <_>
          <internalNodes>
            0 -1 36 2.3430351167917252e-02</internalNodes>
          <leafValues>
            -5.7721322774887085e-01 8.5863709449768066e-01</leafValues></_></weakClassifiers></_>
    <!-- stage 2 -->
    <_>
      <maxWeakCount>6</maxWeakCount>
      <stageThreshold>-4.9851185083389282e-01</stageThreshold>
      <weakClassifiers>
        <_>
          <internalNodes>
            0 -1 10 4.7350354725494981e-04</internalNodes>
          <leafValues>
            9.2000001668930054e-01 -6.0344827175140381e-01</leafValues></_>
        <_>
          <internalNodes>
            0 -1 18 2.8492452576756477e-02</internalNodes>
          <leafValues>
            -7.1030867099761963e-01 4.9363487958908081e-01</leafValues></_>
        <_>
          <internalNodes>
            0 -1 44 2.2850673645734787e-02</internalNodes>
          <leafValues>
            -8.2043451070785522e-01 3.5658031702041626e-01</leafValues></_>
        <_>
          <internalNodes>
            0 -1 21 2.6051182299852371e-02</internalNodes>
          <leafValues>
            -6.0777801275253296e-01 5.3783172369003296e-01</leafValues></_>
        <_>
          <internalNodes>
            0 -1 31 3.4506499767303467e-02</internalNodes>
          <leafValues>
            3.5388970375061035e-01 -8.9831644296646118e-01</leafValues></_>
        <_>
          <internalNodes>
            0 -1 51 2.1080395206809044e-02</internalNodes>
          <leafValues>
            -8.1089520454406738e-01 3.4820479154586792e-01</leafValues></_></weakClassifiers></_>
    <!-- stage 3 -->
    <_>
      <maxWeakCount>7</maxWeakCount>
      <stageThreshold>-6.3285432755947113e-02</stageThreshold>
      <weakClassifiers>
        <_>
          <internalNodes>
            0 -1 8 2.2850116714835167e-02</internalNodes>
          <leafValues>
            -6.7346936464309692e-01 4.4186046719551086e-01</leafValues></_>
        <_>
          <internalNodes>
            0 -1 20 1.6891449689865112e-02</internalNodes>
          <leafValues>
            -5.7628393173217773e-01 5.1461297273635864e-01</leafValues></_>
        <_>
          <internalNodes>
            0 -1 32 2.7614340186119080e-02</internalNodes>
          <leafValues>
            -6.6385179758071899e-01 4.4325596094131470e-01</leafValues></_>
        <_>
          <internalNodes>
            0 -1 50 1.8415670841932297e-02</internalNodes>
          <leafValues>
            -8.0189472436904907e-01 3.8454264402389526e-01</leafValues></_>
        <_>
          <internalNodes>
            0 -1 48 5.3046211600303650e-02</internalNodes>
          <leafValues>
            -5.5703532695770264e-01 6.3238996267318726e-01</leafValues></_>
        <_>
          <internalNodes>
            0 -1 43 1.8817994743585587e-02</internalNodes>
          <leafValues>
            -9.5642346143722534e-01 3.9108267426490784e-01</leafValues></_>
        <_>
          <internalNodes>
            0 -1 49 2.3450560867786407e-02</internalNodes>
          <leafValues>
            -5.9369581937789917e-01 5.5027765035629272e-01</leafValues></_></weakClassifiers></_>
    <!-- stage 4 -->
    <_>
      <maxWeakCount>9</maxWeakCount>
      <stageThreshold>-3.0326467752456665e-01</stageThreshold>
      <weakClassifiers>
        <_>
          <internalNodes>
            0 -1 45 2.5188185274600983e-02</internalNodes>
          <leafValues>
            -7.1428573131561279e-01 2.2807016968727112e-01</leafValues></_>
        <_>
          <internalNodes>
            0 -1 37 7.5907684862613678e-02</internalNodes>
          <leafValues>
            -3.7491649389266968e-01 7.0817577838897705e-01</leafValues></_>
        <_>
          <internalNodes>
            0 -1 25 1.7604321241378784e-02</internalNodes>
          <leafValues>
            -6.2169641256332397e-01 4.2693856358528137e-01</leafValues></_>
        <_>
          <internalNodes>
            0 -1 38 2.5233626365661621e-02</internalNodes>
          <leafValues>
            4.2762896418571472e-01 -5.4721105098724365e-01</leafValues></_>
        <_>
          <internalNodes>
            0 -1 46 4.5720756053924561e-02</internalNodes>
          <leafValues>
            3.1338381767272949e-01 -8.7209200859069824e-01</leafValues></_>
        <_>
          <internalNodes>
            0 -1 16 2.2193621844053268e-02</internalNodes>
          <leafValues>
            -5.0326502323150635e-01 5.3852903842926025e-01</leafValues></_>
        <_>
          <internalNodes>
            0 -1 33 2.3310642689466476e-02</internalNodes>
          <leafValues>
            -6.0532820224761963e-01 4.9329286813735962e-01</leafValues></_>
        <_>
          <internalNodes>
            0 -1 47 2.1868234500288963e-02</internalNodes>
          <leafValues>
            4.5614105463027954e-01 -7.5702357292175293e-01</leafValues></_>
        <_>
          <internalNodes>
            0 -1 13 6.0997852124273777e-03</internalNodes>
          <leafValues>
            6.9836795330047607e-01 -5.0054693222045898e-01</leafValues></_></weakClassifiers></_>
    <!-- stage 5 -->
    <_>
      <maxWeakCount>8</maxWeakCount>
      <stageThreshold>8.9861236512660980e-02</stageThreshold>
      <weakClassifiers>
        <_>
          <internalNodes>
            0 -1 12 9.1425469145178795e-04</internalNodes>
          <leafValues>
            8.2608693838119507e-01 -5.5932205915451050e-01</leafValues></_>
        <_>
          <internalNodes>
            0 -1 29 1.8780991435050964e-02</internalNodes>
          <leafValues>
            5.3159582614898682e-01 -5.3351116180419922e-01</leafValues></_>
        <_>
          <internalNodes>
            0 -1 26 2.4099480360746384e-02</internalNodes>
          <leafValues>
            3.0642187595367432e-01 -7.4647939205169678e-01</leafValues></_>
        <_>
          <internalNodes>
            0 -1 28 3.1200496479868889e-02</internalNodes>
          <leafValues>
            2.5962543487548828e-01 -8.4787404537200928e-01</leafValues></_>
        <_>
          <internalNodes>
            0 -1 17 3.6230862140655518e-02</internalNodes>
          <leafValues>
            -4.3552088737487793e-01 6.6739869117736816e-01</leafValues></_>
        <_>
          <internalNodes>
            0 -1 7 6.0399184003472328e-03</internalNodes>
          <leafValues>
            7.3021453619003296e-01 -3.2306489348411560e-01</leafValues></_>
        <_>
          <internalNodes>
            0 -1 1 3.4564003348350525e-02</internalNodes>
          <leafValues>
            -3.6245813965797424e-01 7.2568750381469727e-01</leafValues></_>
        <_>
          <internalNodes>
            0 -1 57 4.3371137231588364e-02</internalNodes>
          <leafValues>
            -4.0373405814170837e-01 7.5493937730789185e-01</leafValues></_></weakClassifiers></_>
    <!-- stage 6 -->
    <_>
      <maxWeakCount>9</maxWeakCount>
      <stageThreshold>4.8141203820705414e-02</stageThreshold>
      <weakClassifiers>
        <_>
          <internalNodes>
            0 -1 42 2.4752143770456314e-02</internalNodes>
          <leafValues>
            -5.2941179275512695e-01 4.0909090638160706e-01</leafValues></_>
        <_>
          <internalNodes>
            0 -1 3 3.0728561803698540e-02</internalNodes>
          <leafValues>
            -5.0194907188415527e-01 4.9286273121833801e-01</leafValues></_>
        <_>
          <internalNodes>
            0 -1 22 2.2579923272132874e-02</internalNodes>
          <leafValues>
            5.7933109998703003e-01 -4.6778866648674011e-01</leafValues></_>
        <_>
          <internalNodes>
            0 -1 30 1.2139133177697659e-02</internalNodes>
          <leafValues>
            -9.4354939460754395e-01 2.8397086262702942e-01</leafValues></_>
        <_>
          <internalNodes>
            0 -1 2 6.9998893886804581e-03</internalNodes>
          <leafValues>
            -7.4126237630844116e-01 3.4098860621452332e-01</leafValues></_>
        <_>
          <internalNodes>
            0 -1 53 1.8806280568242073e-02</internalNodes>
          <leafValues>
            3.9687183499336243e-01 -7.3079097270965576e-01</leafValues></_>
        <_>
          <internalNodes>
            0 -1 0 3.5742163658142090e-02</internalNodes>
          <leafValues>
            -4.2047110199928284e-01 6.2739175558090210e-01</leafValues></_>
        <_>
          <internalNodes>
            0 -1 15 1.7667848616838455e-02</internalNodes>
          <leafValues>
            4.6337145566940308e-01 -5.4754459857940674e-01</leafValues></_>
        <_>
          <internalNodes>
            0 -1 4 2.9859606176614761e-02</internalNodes>
          <leafValues>
            -3.6850443482398987e-01 8.1020051240921021e-01</leafValues></_></weakClassifiers></_>
    <!-- stage 7 -->
    <_>
      <maxWeakCount>7</maxWeakCount>
      <stageThreshold>8.4767931699752808e-01</stageThreshold>
      <weakClassifiers>
        <_>
          <internalNodes>
            0 -1 23 6.7962475121021271e-02</internalNodes>
          <leafValues>
            6.2068963050842285e-01 -1.</leafValues></_>
        <_>
          <internalNodes>
            0 -1 58 2.5171164423227310e-02</internalNodes>
          <leafValues>
            7.4658912420272827e-01 -6.1722892522811890e-01</leafValues></_>
        <_>
          <internalNodes>
            0 -1 41 1.0419033467769623e-02</internalNodes>
          <leafValues>
            -8.3714926242828369e-01 5.7274162769317627e-01</leafValues></_>
        <_>
          <internalNodes>
            0 -1 54 2.2955801337957382e-02</internalNodes>
          <leafValues>
            -5.2038520574569702e-01 9.1648030281066895e-01</leafValues></_>
        <_>
          <internalNodes>
            0 -1 34 1.5536610037088394e-02</internalNodes>
          <leafValues>
            -5.2324730157852173e-01 8.3488452434539795e-01</leafValues></_>
        <_>
          <internalNodes>
            0 -1 6 3.4423701465129852e-02</internalNodes>
          <leafValues>
            6.1067444086074829e-01 -7.9203814268112183e-01</leafValues></_>
        <_>
          <internalNodes>
            0 -1 24 1.9879147410392761e-02</internalNodes>
          <leafValues>
            -6.0762393474578857e-01 9.3932533264160156e-01</leafValues></_></weakClassifiers></_>
    <!-- stage 8 -->
    <_>
      <maxWeakCount>4</maxWeakCount>
      <stageThreshold>1.3733656406402588e+00</stageThreshold>
      <weakClassifiers>
        <_>
          <internalNodes>
            0 -1 5 5.4594837129116058e-02</internalNodes>
          <leafValues>
            8.0769228935241699e-01 -1.</leafValues></_>
        <_>
          <internalNodes>
            0 -1 39 5.4472777992486954e-02</internalNodes>
          <leafValues>
            7.3638761043548584e-01 -7.8624564409255981e-01</leafValues></_>
        <_>
          <internalNodes>
            0 -1 9 5.4708182811737061e-02</internalNodes>
          <leafValues>
            7.1140164136886597e-01 -9.4962686300277710e-01</leafValues></_>
        <_>
          <internalNodes>
            0 -1 27 1.6433697193861008e-02</internalNodes>
          <leafValues>
            7.7891260385513306e-01 -7.3099136352539063e-01</leafValues></_></weakClassifiers></_></stages>
  <features>
    <_>
      <rect>
        0 20 8 8 10</rect></_>
    <_>
      <rect>
        0 20 8 8 29</rect></_>
    <_>
      <rect>
        4 24 8 8 14</rect></_>
    <_>
      <rect>
        12 20 8 8 26</rect></_>
    <_>
      <rect>
        16 0 8 8 3</rect></_>
    <_>
      <rect>
        20 4 8 8 21</rect></_>
    <_>
      <rect>
        20 48 8 8 15</rect></_>
    <_>
      <rect>
        32 0 8 8 0</rect></_>
    <_>
      <rect>
        32 56 8 8 9</rect></_>
    <_>
      <rect>
        36 36 8 8 32</rect></_>
    <_>
      <rect>
        44 12 8 8 10</rect></_>
    <_>
      <rect>
        44 24 8 8 14</rect></_>
    <_>
      <rect>
        44 80 8 8 13</rect></_>
    <_>
      <rect>
        44 84 8 8 0</rect></_>
    <_>
      <rect>
        0 48 8 16 22</rect></_>
    <_>
      <rect>
        16 12 8 16 5</rect></_>
    <_>
      <rect>
        20 52 8 16 18</rect></_>
    <_>
      <rect>
        24 44 8 16 31</rect></_>
    <_>
      <rect>
        28 12 8 16 21</rect></_>
    <_>
      <rect>
        36 8 8 16 12</rect></_>
    <_>
      <rect>
        36 12 8 16 0</rect></_>
    <_>
      <rect>
        44 40 8 16 25</rect></_>
    <_>
      <rect>
        0 84 16 8 8</rect></_>
    <_>
      <rect>
        4 20 16 8 19</rect></_>
    <_>
      <rect>
        4 56 16 8 18</rect></_>
    <_>
      <rect>
        4 68 16 8 27</rect></_>
    <_>
      <rect>
        4 84 16 8 19</rect></_>
    <_>
      <rect>
        4 84 16 8 20</rect></_>
    <_>
      <rect>
        12 0 16 8 7</rect></_>
    <_>
      <rect>
        12 36 16 8 28</rect></_>
    <_>
      <rect>
        20 8 16 8 2</rect></_>
    <_>
      <rect>
        24 8 16 8 16</rect></_>
    <_>
      <rect>
        24 72 16 8 26</rect></_>
    <_>
      <rect>
        28 64 16 8 3</rect></_>
    <_>
      <rect>
        0 12 16 16 3</rect></_>
    <_>
      <rect>
        0 12 16 16 11</rect></_>
    <_>
      <rect>
        0 20 16 16 25</rect></_>
    <_>
      <rect>
        0 40 16 16 13</rect></_>
    <_>
      <rect>
        0 56 16 16 4</rect></_>
    <_>
      <rect>
        4 0 16 16 26</rect></_>
    <_>
      <rect>
        4 44 16 16 13</rect></_>
    <_>
      <rect>
        8 0 16 16 14</rect></_>
    <_>
      <rect>
        12 64 16 16 19</rect></_>
    <_>
      <rect>
        20 48 16 16 17</rect></_>
    <_>
      <rect>
        24 4 16 16 24</rect></_>
    <_>
      <rect>
        24 60 16 16 34</rect></_>
    <_>
      <rect>
        0 4 16 32 26</rect></_>
    <_>
      <rect>
        0 20 16 32 20</rect></_>
    <_>
      <rect>
        0 32 16 32 13</rect></_>
    <_>
      <rect>
        4 12 16 32 7</rect></_>
    <_>
      <rect>
        8 0 16 32 19</rect></_>
    <_>
      <rect>
        12 12 16 32 30</rect></_>
    <_>
      <rect>
        16 24 16 32 8</rect></_>
    <_>
      <rect>
        24 4 16 32 11</rect></_>
    <_>
      <rect>
        24 28 16 32 25</rect></_>
    <_>
      <rect>
        28 16 16 32 13</rect></_>
    <_>
      <rect>
        28 36 16 32 7</rect></_>
    <_>
      <rect>
        0 12 24 24 31</rect></_>
    <_>
      <rect>
        4 52 24 24 5</rect></_>
    <_>
      <rect>
        12 4 24 48 2</rect></_></features></cascade>
</opencv_storage>
