<?xml version="1.0"?>
<opencv_storage>
<!-- Created using Computer Vision System Toolbox(tm) for MATLAB(R) -->
<!-- Version 8.6.0.267246 (R2015b) -->
<!-- Compatible with OpenCV 2.4 -->
<cascade>
  <stageType>BOOST</stageType>
  <featureType>HOG</featureType>
  <height>100</height>
  <width>60</width>
  <stageParams>
    <boostType>GAB</boostType>
    <minHitRate>9.9800002574920654e-01</minHitRate>
    <maxFalseAlarm>4.9999998882412910e-03</maxFalseAlarm>
    <weightTrimRate>9.4999999999999996e-01</weightTrimRate>
    <maxDepth>1</maxDepth>
    <maxWeakCount>100</maxWeakCount></stageParams>
  <featureParams>
    <maxCatCount>0</maxCatCount>
    <featSize>36</featSize></featureParams>
  <stageNum>9</stageNum>
  <stages>
    <!-- stage 0 -->
    <_>
      <maxWeakCount>5</maxWeakCount>
      <stageThreshold>-3.2530382275581360e-01</stageThreshold>
      <weakClassifiers>
        <_>
          <internalNodes>
            0 -1 26 8.7185455486178398e-03</internalNodes>
          <leafValues>
            9.4444441795349121e-01 -7.7142858505249023e-01</leafValues></_>
        <_>
          <internalNodes>
            0 -1 60 2.8428267687559128e-02</internalNodes>
          <leafValues>
            -6.6892129182815552e-01 7.6564782857894897e-01</leafValues></_>
        <_>
          <internalNodes>
            0 -1 53 1.8189232796430588e-02</internalNodes>
          <leafValues>
            9.5801705121994019e-01 -5.5387574434280396e-01</leafValues></_>
        <_>
          <internalNodes>
            0 -1 51 2.5735367089509964e-02</internalNodes>
          <leafValues>
            8.3517360687255859e-01 -5.2878981828689575e-01</leafValues></_>
        <_>
          <internalNodes>
            0 -1 19 1.3421311974525452e-02</internalNodes>
          <leafValues>
            7.3032641410827637e-01 -6.0082089900970459e-01</leafValues></_></weakClassifiers></_>
    <!-- stage 1 -->
    <_>
      <maxWeakCount>7</maxWeakCount>
      <stageThreshold>5.1625514030456543e-01</stageThreshold>
      <weakClassifiers>
        <_>
          <internalNodes>
            0 -1 55 2.9337843880057335e-02</internalNodes>
          <leafValues>
            -7.4736839532852173e-01 5.2173912525177002e-01</leafValues></_>
        <_>
          <internalNodes>
            0 -1 21 1.7071653157472610e-02</internalNodes>
          <leafValues>
            -7.4277967214584351e-01 3.8994279503822327e-01</leafValues></_>
        <_>
          <internalNodes>
            0 -1 27 1.4713377691805363e-02</internalNodes>
          <leafValues>
            5.3397023677825928e-01 -7.1999979019165039e-01</leafValues></_>
        <_>
          <internalNodes>
            0 -1 2 3.1243085861206055e-02</internalNodes>
          <leafValues>
            -4.6743342280387878e-01 8.5361009836196899e-01</leafValues></_>
        <_>
          <internalNodes>
            0 -1 40 2.8463304042816162e-02</internalNodes>
          <leafValues>
            -7.0435243844985962e-01 5.7837092876434326e-01</leafValues></_>
        <_>
          <internalNodes>
            0 -1 43 2.6190899312496185e-02</internalNodes>
          <leafValues>
            -5.6900829076766968e-01 7.1678388118743896e-01</leafValues></_>
        <_>
          <internalNodes>
            0 -1 25 1.4654929749667645e-02</internalNodes>
          <leafValues>
            8.1257045269012451e-01 -4.8801076412200928e-01</leafValues></_></weakClassifiers></_>
    <!-- stage 2 -->
    <_>
      <maxWeakCount>7</maxWeakCount>
      <stageThreshold>4.5417430996894836e-01</stageThreshold>
      <weakClassifiers>
        <_>
          <internalNodes>
            0 -1 48 5.3634211421012878e-02</internalNodes>
          <leafValues>
            -6.4814811944961548e-01 6.9696968793869019e-01</leafValues></_>
        <_>
          <internalNodes>
            0 -1 50 2.5316543877124786e-02</internalNodes>
          <leafValues>
            -7.0276010036468506e-01 4.7888815402984619e-01</leafValues></_>
        <_>
          <internalNodes>
            0 -1 9 2.3320510983467102e-02</internalNodes>
          <leafValues>
            -6.8471139669418335e-01 5.7412588596343994e-01</leafValues></_>
        <_>
          <internalNodes>
            0 -1 16 1.0019678156822920e-03</internalNodes>
          <leafValues>
            8.6729526519775391e-01 -4.1704946756362915e-01</leafValues></_>
        <_>
          <internalNodes>
            0 -1 14 2.5561861693859100e-02</internalNodes>
          <leafValues>
            -5.1948684453964233e-01 7.7517318725585938e-01</leafValues></_>
        <_>
          <internalNodes>
            0 -1 11 1.5641883015632629e-02</internalNodes>
          <leafValues>
            -6.6111832857131958e-01 5.8259284496307373e-01</leafValues></_>
        <_>
          <internalNodes>
            0 -1 22 2.0998295396566391e-02</internalNodes>
          <leafValues>
            4.0325185656547546e-01 -9.2035728693008423e-01</leafValues></_></weakClassifiers></_>
    <!-- stage 3 -->
    <_>
      <maxWeakCount>9</maxWeakCount>
      <stageThreshold>3.8102805614471436e-01</stageThreshold>
      <weakClassifiers>
        <_>
          <internalNodes>
            0 -1 49 1.7872769385576248e-02</internalNodes>
          <leafValues>
            -8.8405799865722656e-01 1.9444444775581360e-01</leafValues></_>
        <_>
          <internalNodes>
            0 -1 45 1.6247941181063652e-02</internalNodes>
          <leafValues>
            -7.0260447263717651e-01 5.5773717164993286e-01</leafValues></_>
        <_>
          <internalNodes>
            0 -1 59 2.5717217475175858e-02</internalNodes>
          <leafValues>
            -6.8717986345291138e-01 5.1933926343917847e-01</leafValues></_>
        <_>
          <internalNodes>
            0 -1 37 2.4193204939365387e-02</internalNodes>
          <leafValues>
            -7.6734280586242676e-01 4.9275997281074524e-01</leafValues></_>
        <_>
          <internalNodes>
            0 -1 8 1.4107927680015564e-02</internalNodes>
          <leafValues>
            -6.5799486637115479e-01 7.9561114311218262e-01</leafValues></_>
        <_>
          <internalNodes>
            0 -1 58 2.0628333091735840e-02</internalNodes>
          <leafValues>
            -9.5908492803573608e-01 4.0645056962966919e-01</leafValues></_>
        <_>
          <internalNodes>
            0 -1 46 1.9613146781921387e-02</internalNodes>
          <leafValues>
            -8.9981973171234131e-01 3.8165459036827087e-01</leafValues></_>
        <_>
          <internalNodes>
            0 -1 23 2.6758993044495583e-02</internalNodes>
          <leafValues>
            -6.9994586706161499e-01 6.6375768184661865e-01</leafValues></_>
        <_>
          <internalNodes>
            0 -1 57 1.2877626344561577e-02</internalNodes>
          <leafValues>
            -9.4618642330169678e-01 4.4692432880401611e-01</leafValues></_></weakClassifiers></_>
    <!-- stage 4 -->
    <_>
      <maxWeakCount>10</maxWeakCount>
      <stageThreshold>2.0176406204700470e-01</stageThreshold>
      <weakClassifiers>
        <_>
          <internalNodes>
            0 -1 29 1.3300501741468906e-03</internalNodes>
          <leafValues>
            7.1428573131561279e-01 -5.9292036294937134e-01</leafValues></_>
        <_>
          <internalNodes>
            0 -1 47 4.6013243496417999e-02</internalNodes>
          <leafValues>
            2.4699136614799500e-01 -8.9527440071105957e-01</leafValues></_>
        <_>
          <internalNodes>
            0 -1 33 1.7433356493711472e-02</internalNodes>
          <leafValues>
            -1. 1.6658924520015717e-01</leafValues></_>
        <_>
          <internalNodes>
            0 -1 15 2.8508249670267105e-02</internalNodes>
          <leafValues>
            2.3015932738780975e-01 -7.9773676395416260e-01</leafValues></_>
        <_>
          <internalNodes>
            0 -1 17 4.1850298643112183e-02</internalNodes>
          <leafValues>
            -3.1942459940910339e-01 8.5977292060852051e-01</leafValues></_>
        <_>
          <internalNodes>
            0 -1 30 3.8455247879028320e-02</internalNodes>
          <leafValues>
            -3.4911307692527771e-01 7.8731620311737061e-01</leafValues></_>
        <_>
          <internalNodes>
            0 -1 4 3.4676551818847656e-02</internalNodes>
          <leafValues>
            -3.1126555800437927e-01 7.7360659837722778e-01</leafValues></_>
        <_>
          <internalNodes>
            0 -1 32 8.1525109708309174e-03</internalNodes>
          <leafValues>
            -9.3782639503479004e-01 3.2865810394287109e-01</leafValues></_>
        <_>
          <internalNodes>
            0 -1 18 2.1036552265286446e-02</internalNodes>
          <leafValues>
            4.0985772013664246e-01 -6.3890945911407471e-01</leafValues></_>
        <_>
          <internalNodes>
            0 -1 12 1.1024927720427513e-02</internalNodes>
          <leafValues>
            -6.2549817562103271e-01 3.9223188161849976e-01</leafValues></_></weakClassifiers></_>
    <!-- stage 5 -->
    <_>
      <maxWeakCount>9</maxWeakCount>
      <stageThreshold>4.7643965482711792e-01</stageThreshold>
      <weakClassifiers>
        <_>
          <internalNodes>
            0 -1 34 7.2203248739242554e-02</internalNodes>
          <leafValues>
            -6.0000002384185791e-01 6.1290323734283447e-01</leafValues></_>
        <_>
          <internalNodes>
            0 -1 38 2.5426590815186501e-02</internalNodes>
          <leafValues>
            3.3082956075668335e-01 -6.8456757068634033e-01</leafValues></_>
        <_>
          <internalNodes>
            0 -1 28 5.0789359956979752e-03</internalNodes>
          <leafValues>
            6.5608602762222290e-01 -4.0158766508102417e-01</leafValues></_>
        <_>
          <internalNodes>
            0 -1 13 1.8875326961278915e-02</internalNodes>
          <leafValues>
            -7.3678994178771973e-01 3.9841273427009583e-01</leafValues></_>
        <_>
          <internalNodes>
            0 -1 54 1.9341867417097092e-02</internalNodes>
          <leafValues>
            8.4640455245971680e-01 -4.0370604395866394e-01</leafValues></_>
        <_>
          <internalNodes>
            0 -1 36 6.9108009338378906e-03</internalNodes>
          <leafValues>
            9.0677273273468018e-01 -2.6318314671516418e-01</leafValues></_>
        <_>
          <internalNodes>
            0 -1 44 2.5174457579851151e-02</internalNodes>
          <leafValues>
            4.9707651138305664e-01 -5.3495955467224121e-01</leafValues></_>
        <_>
          <internalNodes>
            0 -1 6 9.0900193899869919e-03</internalNodes>
          <leafValues>
            -6.9855499267578125e-01 4.5240977406501770e-01</leafValues></_>
        <_>
          <internalNodes>
            0 -1 7 1.8102087080478668e-02</internalNodes>
          <leafValues>
            4.8177844285964966e-01 -6.2241882085800171e-01</leafValues></_></weakClassifiers></_>
    <!-- stage 6 -->
    <_>
      <maxWeakCount>5</maxWeakCount>
      <stageThreshold>7.6593339443206787e-01</stageThreshold>
      <weakClassifiers>
        <_>
          <internalNodes>
            0 -1 56 5.1343187689781189e-02</internalNodes>
          <leafValues>
            7.7358490228652954e-01 -1.</leafValues></_>
        <_>
          <internalNodes>
            0 -1 31 3.8790278136730194e-02</internalNodes>
          <leafValues>
            8.5564243793487549e-01 -6.8566524982452393e-01</leafValues></_>
        <_>
          <internalNodes>
            0 -1 5 3.8144342601299286e-02</internalNodes>
          <leafValues>
            8.3523041009902954e-01 -7.3333662748336792e-01</leafValues></_>
        <_>
          <internalNodes>
            0 -1 41 3.8834147155284882e-02</internalNodes>
          <leafValues>
            6.4916294813156128e-01 -8.1003582477569580e-01</leafValues></_>
        <_>
          <internalNodes>
            0 -1 1 2.2289536893367767e-02</internalNodes>
          <leafValues>
            7.9240429401397705e-01 -7.7912020683288574e-01</leafValues></_></weakClassifiers></_>
    <!-- stage 7 -->
    <_>
      <maxWeakCount>4</maxWeakCount>
      <stageThreshold>6.1424744129180908e-01</stageThreshold>
      <weakClassifiers>
        <_>
          <internalNodes>
            0 -1 42 4.0591873228549957e-02</internalNodes>
          <leafValues>
            7.4074071645736694e-01 -1.</leafValues></_>
        <_>
          <internalNodes>
            0 -1 3 3.3977739512920380e-02</internalNodes>
          <leafValues>
            8.2406383752822876e-01 -6.5755689144134521e-01</leafValues></_>
        <_>
          <internalNodes>
            0 -1 24 2.2384528070688248e-02</internalNodes>
          <leafValues>
            1. -4.6893644332885742e-01</leafValues></_>
        <_>
          <internalNodes>
            0 -1 20 3.1005796045064926e-02</internalNodes>
          <leafValues>
            -4.5604652166366577e-01 1.</leafValues></_></weakClassifiers></_>
    <!-- stage 8 -->
    <_>
      <maxWeakCount>5</maxWeakCount>
      <stageThreshold>1.1624838113784790e+00</stageThreshold>
      <weakClassifiers>
        <_>
          <internalNodes>
            0 -1 52 3.3203765749931335e-02</internalNodes>
          <leafValues>
            8.3673471212387085e-01 -6.3636362552642822e-01</leafValues></_>
        <_>
          <internalNodes>
            0 -1 0 3.6778416484594345e-02</internalNodes>
          <leafValues>
            7.8116565942764282e-01 -7.3518651723861694e-01</leafValues></_>
        <_>
          <internalNodes>
            0 -1 39 1.7214577645063400e-02</internalNodes>
          <leafValues>
            9.4810879230499268e-01 -4.7041958570480347e-01</leafValues></_>
        <_>
          <internalNodes>
            0 -1 35 1.6878636553883553e-02</internalNodes>
          <leafValues>
            -6.0542649030685425e-01 7.8038716316223145e-01</leafValues></_>
        <_>
          <internalNodes>
            0 -1 10 2.3777641355991364e-02</internalNodes>
          <leafValues>
            7.5096803903579712e-01 -7.5146520137786865e-01</leafValues></_></weakClassifiers></_></stages>
  <features>
    <_>
      <rect>
        0 8 8 8 4</rect></_>
    <_>
      <rect>
        0 84 8 8 7</rect></_>
    <_>
      <rect>
        4 52 8 8 16</rect></_>
    <_>
      <rect>
        4 60 8 8 22</rect></_>
    <_>
      <rect>
        8 0 8 8 20</rect></_>
    <_>
      <rect>
        12 20 8 8 35</rect></_>
    <_>
      <rect>
        12 80 8 8 9</rect></_>
    <_>
      <rect>
        24 0 8 8 8</rect></_>
    <_>
      <rect>
        24 24 8 8 16</rect></_>
    <_>
      <rect>
        28 16 8 8 21</rect></_>
    <_>
      <rect>
        28 40 8 8 19</rect></_>
    <_>
      <rect>
        28 60 8 8 13</rect></_>
    <_>
      <rect>
        28 72 8 8 3</rect></_>
    <_>
      <rect>
        32 72 8 8 26</rect></_>
    <_>
      <rect>
        32 84 8 8 12</rect></_>
    <_>
      <rect>
        36 56 8 8 12</rect></_>
    <_>
      <rect>
        40 8 8 8 12</rect></_>
    <_>
      <rect>
        44 24 8 8 27</rect></_>
    <_>
      <rect>
        44 52 8 8 31</rect></_>
    <_>
      <rect>
        44 80 8 8 5</rect></_>
    <_>
      <rect>
        0 12 8 16 28</rect></_>
    <_>
      <rect>
        0 20 8 16 34</rect></_>
    <_>
      <rect>
        4 40 8 16 23</rect></_>
    <_>
      <rect>
        12 24 8 16 8</rect></_>
    <_>
      <rect>
        24 52 8 16 31</rect></_>
    <_>
      <rect>
        28 68 8 16 30</rect></_>
    <_>
      <rect>
        36 8 8 16 12</rect></_>
    <_>
      <rect>
        44 0 8 16 12</rect></_>
    <_>
      <rect>
        44 44 8 16 10</rect></_>
    <_>
      <rect>
        44 56 8 16 29</rect></_>
    <_>
      <rect>
        4 4 16 8 13</rect></_>
    <_>
      <rect>
        4 20 16 8 29</rect></_>
    <_>
      <rect>
        4 32 16 8 3</rect></_>
    <_>
      <rect>
        4 36 16 8 31</rect></_>
    <_>
      <rect>
        4 44 16 8 13</rect></_>
    <_>
      <rect>
        8 8 16 8 25</rect></_>
    <_>
      <rect>
        8 24 16 8 10</rect></_>
    <_>
      <rect>
        8 24 16 8 30</rect></_>
    <_>
      <rect>
        8 44 16 8 5</rect></_>
    <_>
      <rect>
        20 0 16 8 9</rect></_>
    <_>
      <rect>
        28 36 16 8 21</rect></_>
    <_>
      <rect>
        8 16 16 16 35</rect></_>
    <_>
      <rect>
        12 32 16 16 32</rect></_>
    <_>
      <rect>
        20 4 16 16 25</rect></_>
    <_>
      <rect>
        24 36 16 16 19</rect></_>
    <_>
      <rect>
        24 68 16 16 21</rect></_>
    <_>
      <rect>
        28 56 16 16 8</rect></_>
    <_>
      <rect>
        0 0 16 32 26</rect></_>
    <_>
      <rect>
        0 32 16 32 13</rect></_>
    <_>
      <rect>
        0 32 16 32 27</rect></_>
    <_>
      <rect>
        4 16 16 32 11</rect></_>
    <_>
      <rect>
        16 24 16 32 8</rect></_>
    <_>
      <rect>
        20 36 16 32 28</rect></_>
    <_>
      <rect>
        28 16 16 32 13</rect></_>
    <_>
      <rect>
        0 0 24 24 21</rect></_>
    <_>
      <rect>
        0 48 24 24 16</rect></_>
    <_>
      <rect>
        4 20 24 24 8</rect></_>
    <_>
      <rect>
        8 52 24 24 30</rect></_>
    <_>
      <rect>
        12 4 24 24 2</rect></_>
    <_>
      <rect>
        12 16 24 24 6</rect></_>
    <_>
      <rect>
        12 4 24 48 2</rect></_></features></cascade>
</opencv_storage>
