<?xml version="1.0"?>
<opencv_storage>
<!-- Created using Computer Vision System Toolbox(tm) for MATLAB(R) -->
<!-- Version 8.6.0.267246 (R2015b) -->
<!-- Compatible with OpenCV 2.4 -->
<cascade>
  <stageType>BOOST</stageType>
  <featureType>HOG</featureType>
  <height>110</height>
  <width>70</width>
  <stageParams>
    <boostType>GAB</boostType>
    <minHitRate>9.9699997901916504e-01</minHitRate>
    <maxFalseAlarm>1.5000000596046448e-01</maxFalseAlarm>
    <weightTrimRate>9.4999999999999996e-01</weightTrimRate>
    <maxDepth>1</maxDepth>
    <maxWeakCount>100</maxWeakCount></stageParams>
  <featureParams>
    <maxCatCount>0</maxCatCount>
    <featSize>36</featSize></featureParams>
  <stageNum>10</stageNum>
  <stages>
    <!-- stage 0 -->
    <_>
      <maxWeakCount>2</maxWeakCount>
      <stageThreshold>-1.3563606142997742e-01</stageThreshold>
      <weakClassifiers>
        <_>
          <internalNodes>
            0 -1 33 2.7690690010786057e-02</internalNodes>
          <leafValues>
            -9.5061731338500977e-01 7.7777779102325439e-01</leafValues></_>
        <_>
          <internalNodes>
            0 -1 25 2.4846889078617096e-02</internalNodes>
          <leafValues>
            8.1498122215270996e-01 -7.9154241085052490e-01</leafValues></_></weakClassifiers></_>
    <!-- stage 1 -->
    <_>
      <maxWeakCount>4</maxWeakCount>
      <stageThreshold>-2.5435367226600647e-01</stageThreshold>
      <weakClassifiers>
        <_>
          <internalNodes>
            0 -1 38 2.3072937503457069e-02</internalNodes>
          <leafValues>
            -9.5061731338500977e-01 7.7777779102325439e-01</leafValues></_>
        <_>
          <internalNodes>
            0 -1 31 1.7995905131101608e-02</internalNodes>
          <leafValues>
            -8.2335603237152100e-01 7.0211458206176758e-01</leafValues></_>
        <_>
          <internalNodes>
            0 -1 21 1.6669105738401413e-02</internalNodes>
          <leafValues>
            -7.0887017250061035e-01 8.4754163026809692e-01</leafValues></_>
        <_>
          <internalNodes>
            0 -1 39 2.4193074554204941e-02</internalNodes>
          <leafValues>
            -8.5339260101318359e-01 7.3793751001358032e-01</leafValues></_></weakClassifiers></_>
    <!-- stage 2 -->
    <_>
      <maxWeakCount>5</maxWeakCount>
      <stageThreshold>-9.1097766160964966e-01</stageThreshold>
      <weakClassifiers>
        <_>
          <internalNodes>
            0 -1 0 4.8210233217105269e-04</internalNodes>
          <leafValues>
            1. -6.0000002384185791e-01</leafValues></_>
        <_>
          <internalNodes>
            0 -1 9 2.8432253748178482e-02</internalNodes>
          <leafValues>
            -7.4040395021438599e-01 4.8590174317359924e-01</leafValues></_>
        <_>
          <internalNodes>
            0 -1 29 1.7376802861690521e-02</internalNodes>
          <leafValues>
            5.8595007658004761e-01 -6.9008851051330566e-01</leafValues></_>
        <_>
          <internalNodes>
            0 -1 23 3.8660094141960144e-02</internalNodes>
          <leafValues>
            -6.3519603013992310e-01 6.8886756896972656e-01</leafValues></_>
        <_>
          <internalNodes>
            0 -1 36 3.0556071549654007e-02</internalNodes>
          <leafValues>
            4.7867223620414734e-01 -9.5426654815673828e-01</leafValues></_></weakClassifiers></_>
    <!-- stage 3 -->
    <_>
      <maxWeakCount>4</maxWeakCount>
      <stageThreshold>-2.1923793852329254e-01</stageThreshold>
      <weakClassifiers>
        <_>
          <internalNodes>
            0 -1 7 1.4585163444280624e-03</internalNodes>
          <leafValues>
            9.2000001668930054e-01 -6.4356434345245361e-01</leafValues></_>
        <_>
          <internalNodes>
            0 -1 14 2.9996225610375404e-02</internalNodes>
          <leafValues>
            -6.6774463653564453e-01 5.8859592676162720e-01</leafValues></_>
        <_>
          <internalNodes>
            0 -1 28 2.8112953528761864e-02</internalNodes>
          <leafValues>
            -7.8673481941223145e-01 5.2270662784576416e-01</leafValues></_>
        <_>
          <internalNodes>
            0 -1 2 8.3101727068424225e-03</internalNodes>
          <leafValues>
            5.7352709770202637e-01 -6.8697607517242432e-01</leafValues></_></weakClassifiers></_>
    <!-- stage 4 -->
    <_>
      <maxWeakCount>4</maxWeakCount>
      <stageThreshold>-4.8686444759368896e-02</stageThreshold>
      <weakClassifiers>
        <_>
          <internalNodes>
            0 -1 24 1.8971346318721771e-02</internalNodes>
          <leafValues>
            -8.7301588058471680e-01 2.0634920895099640e-01</leafValues></_>
        <_>
          <internalNodes>
            0 -1 35 1.9284471869468689e-02</internalNodes>
          <leafValues>
            -9.5189327001571655e-01 2.7906334400177002e-01</leafValues></_>
        <_>
          <internalNodes>
            0 -1 12 1.9819505512714386e-02</internalNodes>
          <leafValues>
            -8.2089471817016602e-01 2.6385161280632019e-01</leafValues></_>
        <_>
          <internalNodes>
            0 -1 40 2.5261251255869865e-02</internalNodes>
          <leafValues>
            -7.5275570154190063e-01 4.3300601840019226e-01</leafValues></_></weakClassifiers></_>
    <!-- stage 5 -->
    <_>
      <maxWeakCount>5</maxWeakCount>
      <stageThreshold>-2.1686591207981110e-01</stageThreshold>
      <weakClassifiers>
        <_>
          <internalNodes>
            0 -1 30 7.3373597115278244e-03</internalNodes>
          <leafValues>
            8.2608693838119507e-01 -5.9223300218582153e-01</leafValues></_>
        <_>
          <internalNodes>
            0 -1 22 4.4380083680152893e-02</internalNodes>
          <leafValues>
            3.1979915499687195e-01 -9.3500912189483643e-01</leafValues></_>
        <_>
          <internalNodes>
            0 -1 10 2.4560067802667618e-02</internalNodes>
          <leafValues>
            3.3266660571098328e-01 -9.0592122077941895e-01</leafValues></_>
        <_>
          <internalNodes>
            0 -1 32 2.3965310305356979e-02</internalNodes>
          <leafValues>
            4.4420275092124939e-01 -5.9571009874343872e-01</leafValues></_>
        <_>
          <internalNodes>
            0 -1 6 4.8894725739955902e-02</internalNodes>
          <leafValues>
            3.7009164690971375e-01 -9.0103352069854736e-01</leafValues></_></weakClassifiers></_>
    <!-- stage 6 -->
    <_>
      <maxWeakCount>6</maxWeakCount>
      <stageThreshold>-8.1588500738143921e-01</stageThreshold>
      <weakClassifiers>
        <_>
          <internalNodes>
            0 -1 15 9.4496051315218210e-04</internalNodes>
          <leafValues>
            8.0952382087707520e-01 -5.6190478801727295e-01</leafValues></_>
        <_>
          <internalNodes>
            0 -1 26 3.0340321362018585e-02</internalNodes>
          <leafValues>
            4.2724120616912842e-01 -6.9351810216903687e-01</leafValues></_>
        <_>
          <internalNodes>
            0 -1 11 3.5012785345315933e-02</internalNodes>
          <leafValues>
            -4.7273600101470947e-01 7.3270165920257568e-01</leafValues></_>
        <_>
          <internalNodes>
            0 -1 13 2.3213723674416542e-02</internalNodes>
          <leafValues>
            -6.0641491413116455e-01 5.1369822025299072e-01</leafValues></_>
        <_>
          <internalNodes>
            0 -1 34 4.8799373209476471e-02</internalNodes>
          <leafValues>
            -3.7631472945213318e-01 8.9770025014877319e-01</leafValues></_>
        <_>
          <internalNodes>
            0 -1 37 2.8369078412652016e-02</internalNodes>
          <leafValues>
            -4.3054729700088501e-01 7.2274434566497803e-01</leafValues></_></weakClassifiers></_>
    <!-- stage 7 -->
    <_>
      <maxWeakCount>4</maxWeakCount>
      <stageThreshold>1.9720374047756195e-01</stageThreshold>
      <weakClassifiers>
        <_>
          <internalNodes>
            0 -1 8 8.0428887158632278e-03</internalNodes>
          <leafValues>
            6.6666668653488159e-01 -4.7826087474822998e-01</leafValues></_>
        <_>
          <internalNodes>
            0 -1 19 2.7623265981674194e-02</internalNodes>
          <leafValues>
            4.8829582333564758e-01 -8.2573646306991577e-01</leafValues></_>
        <_>
          <internalNodes>
            0 -1 5 7.0815188810229301e-03</internalNodes>
          <leafValues>
            8.6065685749053955e-01 -4.4410151243209839e-01</leafValues></_>
        <_>
          <internalNodes>
            0 -1 1 1.9836992025375366e-02</internalNodes>
          <leafValues>
            -5.0438332557678223e-01 8.2436901330947876e-01</leafValues></_></weakClassifiers></_>
    <!-- stage 8 -->
    <_>
      <maxWeakCount>3</maxWeakCount>
      <stageThreshold>6.4856564998626709e-01</stageThreshold>
      <weakClassifiers>
        <_>
          <internalNodes>
            0 -1 3 7.5599670410156250e-02</internalNodes>
          <leafValues>
            7.4468082189559937e-01 -8.4615385532379150e-01</leafValues></_>
        <_>
          <internalNodes>
            0 -1 27 3.8269557058811188e-02</internalNodes>
          <leafValues>
            6.9337695837020874e-01 -9.3402844667434692e-01</leafValues></_>
        <_>
          <internalNodes>
            0 -1 20 3.4618571400642395e-02</internalNodes>
          <leafValues>
            8.3791327476501465e-01 -6.9408839941024780e-01</leafValues></_></weakClassifiers></_>
    <!-- stage 9 -->
    <_>
      <maxWeakCount>4</maxWeakCount>
      <stageThreshold>1.3387403488159180e+00</stageThreshold>
      <weakClassifiers>
        <_>
          <internalNodes>
            0 -1 17 4.1939802467823029e-03</internalNodes>
          <leafValues>
            -1. 7.5000000000000000e-01</leafValues></_>
        <_>
          <internalNodes>
            0 -1 18 5.1155298948287964e-02</internalNodes>
          <leafValues>
            8.1843596696853638e-01 -8.0436229705810547e-01</leafValues></_>
        <_>
          <internalNodes>
            0 -1 4 1.1992236599326134e-02</internalNodes>
          <leafValues>
            -8.1039237976074219e-01 6.9336867332458496e-01</leafValues></_>
        <_>
          <internalNodes>
            0 -1 16 2.9508483130484819e-03</internalNodes>
          <leafValues>
            -8.5152024030685425e-01 6.9973403215408325e-01</leafValues></_></weakClassifiers></_></stages>
  <features>
    <_>
      <rect>
        0 76 8 8 24</rect></_>
    <_>
      <rect>
        4 28 8 8 0</rect></_>
    <_>
      <rect>
        4 88 8 8 6</rect></_>
    <_>
      <rect>
        12 76 8 8 26</rect></_>
    <_>
      <rect>
        16 12 8 8 30</rect></_>
    <_>
      <rect>
        40 84 8 8 19</rect></_>
    <_>
      <rect>
        44 60 8 8 26</rect></_>
    <_>
      <rect>
        48 16 8 8 14</rect></_>
    <_>
      <rect>
        48 80 8 8 28</rect></_>
    <_>
      <rect>
        52 56 8 8 26</rect></_>
    <_>
      <rect>
        0 8 8 16 18</rect></_>
    <_>
      <rect>
        0 36 8 16 16</rect></_>
    <_>
      <rect>
        48 64 8 16 8</rect></_>
    <_>
      <rect>
        52 36 8 16 25</rect></_>
    <_>
      <rect>
        52 48 8 16 26</rect></_>
    <_>
      <rect>
        52 68 8 16 13</rect></_>
    <_>
      <rect>
        0 76 16 8 34</rect></_>
    <_>
      <rect>
        8 28 16 8 21</rect></_>
    <_>
      <rect>
        8 56 16 8 30</rect></_>
    <_>
      <rect>
        16 40 16 8 6</rect></_>
    <_>
      <rect>
        28 0 16 8 8</rect></_>
    <_>
      <rect>
        8 4 16 16 19</rect></_>
    <_>
      <rect>
        16 16 16 16 8</rect></_>
    <_>
      <rect>
        32 24 16 16 21</rect></_>
    <_>
      <rect>
        0 36 16 32 27</rect></_>
    <_>
      <rect>
        0 44 16 32 26</rect></_>
    <_>
      <rect>
        12 8 16 32 10</rect></_>
    <_>
      <rect>
        12 8 16 32 33</rect></_>
    <_>
      <rect>
        24 12 16 32 22</rect></_>
    <_>
      <rect>
        32 8 16 32 12</rect></_>
    <_>
      <rect>
        36 8 16 32 13</rect></_>
    <_>
      <rect>
        0 8 32 16 10</rect></_>
    <_>
      <rect>
        4 72 32 16 28</rect></_>
    <_>
      <rect>
        0 32 24 24 12</rect></_>
    <_>
      <rect>
        0 40 24 24 12</rect></_>
    <_>
      <rect>
        4 20 24 24 12</rect></_>
    <_>
      <rect>
        8 56 24 24 5</rect></_>
    <_>
      <rect>
        12 8 24 48 25</rect></_>
    <_>
      <rect>
        16 0 24 48 1</rect></_>
    <_>
      <rect>
        20 4 24 48 1</rect></_>
    <_>
      <rect>
        20 4 24 48 6</rect></_></features></cascade>
</opencv_storage>
